<?xml version="1.0"?>
<opencv_storage>
<cascade>
  <stageType>BOOST</stageType>
  <featureType>HAAR</featureType>
  <height>24</height>
  <width>24</width>
  <stageParams>
    <boostType>GAB</boostType>
    <minHitRate>9.7500002384185791e-01</minHitRate>
    <maxFalseAlarm>1.0000000149011612e-01</maxFalseAlarm>
    <weightTrimRate>9.4999999999999996e-01</weightTrimRate>
    <maxDepth>1</maxDepth>
    <maxWeakCount>100</maxWeakCount></stageParams>
  <featureParams>
    <maxCatCount>0</maxCatCount>
    <featSize>1</featSize>
    <mode>BASIC</mode></featureParams>
  <stageNum>4</stageNum>
  <stages>
    <!-- stage 0 -->
    <_>
      <maxWeakCount>9</maxWeakCount>
      <stageThreshold>-1.7316764593124390e+00</stageThreshold>
      <weakClassifiers>
        <_>
          <internalNodes>
            0 -1 9 7.6914750039577484e-02</internalNodes>
          <leafValues>
            -9.3388432264328003e-01 4.8837208747863770e-01</leafValues></_>
        <_>
          <internalNodes>
            0 -1 24 -2.9004741460084915e-02</internalNodes>
          <leafValues>
            1.9099795818328857e-01 -7.7540987730026245e-01</leafValues></_>
        <_>
          <internalNodes>
            0 -1 28 1.5348043292760849e-02</internalNodes>
          <leafValues>
            -4.6276059746742249e-01 5.9953713417053223e-01</leafValues></_>
        <_>
          <internalNodes>
            0 -1 14 6.2485947273671627e-03</internalNodes>
          <leafValues>
            -3.5768491029739380e-01 6.3279318809509277e-01</leafValues></_>
        <_>
          <internalNodes>
            0 -1 23 1.4600910246372223e-02</internalNodes>
          <leafValues>
            -4.0911093354225159e-01 5.1179957389831543e-01</leafValues></_>
        <_>
          <internalNodes>
            0 -1 2 2.4053556844592094e-03</internalNodes>
          <leafValues>
            -2.9240038990974426e-01 6.5169000625610352e-01</leafValues></_>
        <_>
          <internalNodes>
            0 -1 0 4.5337196206673980e-04</internalNodes>
          <leafValues>
            2.8667956590652466e-01 -6.8101692199707031e-01</leafValues></_>
        <_>
          <internalNodes>
            0 -1 16 3.5722111351788044e-03</internalNodes>
          <leafValues>
            -4.4137421250343323e-01 4.2551645636558533e-01</leafValues></_>
        <_>
          <internalNodes>
            0 -1 19 4.5901477336883545e-02</internalNodes>
          <leafValues>
            -2.5711935758590698e-01 7.5593382120132446e-01</leafValues></_></weakClassifiers></_>
    <!-- stage 1 -->
    <_>
      <maxWeakCount>12</maxWeakCount>
      <stageThreshold>-1.4562608003616333e+00</stageThreshold>
      <weakClassifiers>
        <_>
          <internalNodes>
            0 -1 15 1.6287422180175781e-01</internalNodes>
          <leafValues>
            -9.2776966094970703e-01 1.9607843831181526e-02</leafValues></_>
        <_>
          <internalNodes>
            0 -1 30 -5.4059587419033051e-03</internalNodes>
          <leafValues>
            -1.4013304375112057e-02 -7.5853955745697021e-01</leafValues></_>
        <_>
          <internalNodes>
            0 -1 38 -6.7478138953447342e-04</internalNodes>
          <leafValues>
            2.5178387761116028e-01 -5.4041767120361328e-01</leafValues></_>
        <_>
          <internalNodes>
            0 -1 4 8.7843785877339542e-05</internalNodes>
          <leafValues>
            2.1591062843799591e-01 -7.4691408872604370e-01</leafValues></_>
        <_>
          <internalNodes>
            0 -1 32 1.1147104669362307e-04</internalNodes>
          <leafValues>
            2.3017720878124237e-01 -7.0941632986068726e-01</leafValues></_>
        <_>
          <internalNodes>
            0 -1 25 3.6230063997209072e-03</internalNodes>
          <leafValues>
            -4.2615294456481934e-01 3.9102020859718323e-01</leafValues></_>
        <_>
          <internalNodes>
            0 -1 5 -1.1109567276434973e-04</internalNodes>
          <leafValues>
            -7.0773565769195557e-01 2.5871312618255615e-01</leafValues></_>
        <_>
          <internalNodes>
            0 -1 12 1.1826866539195180e-03</internalNodes>
          <leafValues>
            -3.3548662066459656e-01 5.2172183990478516e-01</leafValues></_>
        <_>
          <internalNodes>
            0 -1 6 7.2504580020904541e-02</internalNodes>
          <leafValues>
            2.0747502148151398e-01 -8.2372379302978516e-01</leafValues></_>
        <_>
          <internalNodes>
            0 -1 1 -2.6786118745803833e-02</internalNodes>
          <leafValues>
            6.6113668680191040e-01 -2.5649428367614746e-01</leafValues></_>
        <_>
          <internalNodes>
            0 -1 11 3.0967749655246735e-02</internalNodes>
          <leafValues>
            -3.1598225235939026e-01 5.8561819791793823e-01</leafValues></_>
        <_>
          <internalNodes>
            0 -1 18 -1.3994622975587845e-02</internalNodes>
          <leafValues>
            5.0934499502182007e-01 -3.4230887889862061e-01</leafValues></_></weakClassifiers></_>
    <!-- stage 2 -->
    <_>
      <maxWeakCount>13</maxWeakCount>
      <stageThreshold>-1.3721841573715210e+00</stageThreshold>
      <weakClassifiers>
        <_>
          <internalNodes>
            0 -1 10 6.9506302475929260e-02</internalNodes>
          <leafValues>
            -9.1387557983398438e-01 1.</leafValues></_>
        <_>
          <internalNodes>
            0 -1 17 3.6427132785320282e-02</internalNodes>
          <leafValues>
            -7.2744977474212646e-01 1.0653354227542877e-01</leafValues></_>
        <_>
          <internalNodes>
            0 -1 5 1.0834241402335465e-04</internalNodes>
          <leafValues>
            2.5099352002143860e-01 -6.2170070409774780e-01</leafValues></_>
        <_>
          <internalNodes>
            0 -1 35 4.0056952275335789e-04</internalNodes>
          <leafValues>
            1.7824430763721466e-01 -7.7433681488037109e-01</leafValues></_>
        <_>
          <internalNodes>
            0 -1 36 -5.4047943558543921e-04</internalNodes>
          <leafValues>
            -9.3266004323959351e-01 1.6871085762977600e-01</leafValues></_>
        <_>
          <internalNodes>
            0 -1 31 1.4418612699955702e-03</internalNodes>
          <leafValues>
            -4.7696465253829956e-01 3.0759814381599426e-01</leafValues></_>
        <_>
          <internalNodes>
            0 -1 33 2.5459183380007744e-02</internalNodes>
          <leafValues>
            -3.0497512221336365e-01 5.2427458763122559e-01</leafValues></_>
        <_>
          <internalNodes>
            0 -1 27 -1.4677023282274604e-03</internalNodes>
          <leafValues>
            3.5687267780303955e-01 -5.7548874616622925e-01</leafValues></_>
        <_>
          <internalNodes>
            0 -1 22 -8.3470657467842102e-02</internalNodes>
          <leafValues>
            5.5380040407180786e-01 -2.6759365200996399e-01</leafValues></_>
        <_>
          <internalNodes>
            0 -1 42 4.1752966353669763e-05</internalNodes>
          <leafValues>
            2.6984104514122009e-01 -5.8428204059600830e-01</leafValues></_>
        <_>
          <internalNodes>
            0 -1 44 7.6282762165647000e-05</internalNodes>
          <leafValues>
            1.8830665946006775e-01 -6.7197585105895996e-01</leafValues></_>
        <_>
          <internalNodes>
            0 -1 13 7.0029641501605511e-03</internalNodes>
          <leafValues>
            -3.2153251767158508e-01 4.6419680118560791e-01</leafValues></_>
        <_>
          <internalNodes>
            0 -1 21 -1.4846450358163565e-04</internalNodes>
          <leafValues>
            3.3907634019851685e-01 -4.0274330973625183e-01</leafValues></_></weakClassifiers></_>
    <!-- stage 3 -->
    <_>
      <maxWeakCount>13</maxWeakCount>
      <stageThreshold>-1.3723397254943848e+00</stageThreshold>
      <weakClassifiers>
        <_>
          <internalNodes>
            0 -1 3 -8.7526202201843262e-02</internalNodes>
          <leafValues>
            3.6363637447357178e-01 -9.1819053888320923e-01</leafValues></_>
        <_>
          <internalNodes>
            0 -1 34 2.8033248963765800e-04</internalNodes>
          <leafValues>
            -8.0986452102661133e-01 -1.7502044141292572e-01</leafValues></_>
        <_>
          <internalNodes>
            0 -1 29 -1.6343322931788862e-04</internalNodes>
          <leafValues>
            2.8118008375167847e-01 -5.3672868013381958e-01</leafValues></_>
        <_>
          <internalNodes>
            0 -1 26 -2.9953122138977051e-03</internalNodes>
          <leafValues>
            3.2334578037261963e-01 -4.4699457287788391e-01</leafValues></_>
        <_>
          <internalNodes>
            0 -1 41 2.1919151768088341e-03</internalNodes>
          <leafValues>
            1.6360175609588623e-01 -8.7063711881637573e-01</leafValues></_>
        <_>
          <internalNodes>
            0 -1 40 9.4768923008814454e-04</internalNodes>
          <leafValues>
            -3.6903783679008484e-01 3.7799876928329468e-01</leafValues></_>
        <_>
          <internalNodes>
            0 -1 43 1.8133303092326969e-04</internalNodes>
          <leafValues>
            1.8424668908119202e-01 -7.2610187530517578e-01</leafValues></_>
        <_>
          <internalNodes>
            0 -1 7 3.2567238667979836e-04</internalNodes>
          <leafValues>
            -2.8704494237899780e-01 4.1257101297378540e-01</leafValues></_>
        <_>
          <internalNodes>
            0 -1 8 2.1396327065303922e-04</internalNodes>
          <leafValues>
            2.3263297975063324e-01 -5.2386498451232910e-01</leafValues></_>
        <_>
          <internalNodes>
            0 -1 20 -2.0952455815859139e-04</internalNodes>
          <leafValues>
            -7.0760905742645264e-01 1.7338469624519348e-01</leafValues></_>
        <_>
          <internalNodes>
            0 -1 37 -1.8149281095247716e-04</internalNodes>
          <leafValues>
            3.4972977638244629e-01 -3.5237431526184082e-01</leafValues></_>
        <_>
          <internalNodes>
            0 -1 45 -1.0275226668454707e-04</internalNodes>
          <leafValues>
            -5.2993190288543701e-01 2.4096129834651947e-01</leafValues></_>
        <_>
          <internalNodes>
            0 -1 39 -4.8344535753130913e-04</internalNodes>
          <leafValues>
            -6.5272438526153564e-01 1.8247312307357788e-01</leafValues></_></weakClassifiers></_></stages>
  <features>
    <_>
      <rects>
        <_>
          0 3 2 6 -1.</_>
        <_>
          0 5 2 2 3.</_></rects>
      <tilted>0</tilted></_>
    <_>
      <rects>
        <_>
          0 12 24 1 -1.</_>
        <_>
          8 12 8 1 3.</_></rects>
      <tilted>0</tilted></_>
    <_>
      <rects>
        <_>
          0 18 2 4 -1.</_>
        <_>
          0 18 1 2 2.</_>
        <_>
          1 20 1 2 2.</_></rects>
      <tilted>0</tilted></_>
    <_>
      <rects>
        <_>
          0 20 10 4 -1.</_>
        <_>
          5 20 5 4 2.</_></rects>
      <tilted>0</tilted></_>
    <_>
      <rects>
        <_>
          0 22 2 2 -1.</_>
        <_>
          1 22 1 2 2.</_></rects>
      <tilted>0</tilted></_>
    <_>
      <rects>
        <_>
          1 0 3 1 -1.</_>
        <_>
          2 0 1 1 3.</_></rects>
      <tilted>0</tilted></_>
    <_>
      <rects>
        <_>
          1 6 20 18 -1.</_>
        <_>
          1 15 20 9 2.</_></rects>
      <tilted>0</tilted></_>
    <_>
      <rects>
        <_>
          1 17 2 2 -1.</_>
        <_>
          1 17 1 1 2.</_>
        <_>
          2 18 1 1 2.</_></rects>
      <tilted>0</tilted></_>
    <_>
      <rects>
        <_>
          2 0 3 6 -1.</_>
        <_>
          2 2 3 2 3.</_></rects>
      <tilted>0</tilted></_>
    <_>
      <rects>
        <_>
          2 2 21 2 -1.</_>
        <_>
          9 2 7 2 3.</_></rects>
      <tilted>0</tilted></_>
    <_>
      <rects>
        <_>
          2 6 3 10 -1.</_>
        <_>
          2 11 3 5 2.</_></rects>
      <tilted>0</tilted></_>
    <_>
      <rects>
        <_>
          3 0 12 5 -1.</_>
        <_>
          9 0 6 5 2.</_></rects>
      <tilted>0</tilted></_>
    <_>
      <rects>
        <_>
          3 21 1 3 -1.</_>
        <_>
          3 22 1 1 3.</_></rects>
      <tilted>0</tilted></_>
    <_>
      <rects>
        <_>
          4 5 18 3 -1.</_>
        <_>
          4 6 18 1 3.</_></rects>
      <tilted>0</tilted></_>
    <_>
      <rects>
        <_>
          4 11 6 2 -1.</_>
        <_>
          6 11 2 2 3.</_></rects>
      <tilted>0</tilted></_>
    <_>
      <rects>
        <_>
          5 2 15 6 -1.</_>
        <_>
          10 2 5 6 3.</_></rects>
      <tilted>0</tilted></_>
    <_>
      <rects>
        <_>
          5 2 15 3 -1.</_>
        <_>
          5 3 15 1 3.</_></rects>
      <tilted>0</tilted></_>
    <_>
      <rects>
        <_>
          6 0 14 6 -1.</_>
        <_>
          6 2 14 2 3.</_></rects>
      <tilted>0</tilted></_>
    <_>
      <rects>
        <_>
          6 2 12 4 -1.</_>
        <_>
          10 2 4 4 3.</_></rects>
      <tilted>0</tilted></_>
    <_>
      <rects>
        <_>
          6 2 8 16 -1.</_>
        <_>
          6 2 4 8 2.</_>
        <_>
          10 10 4 8 2.</_></rects>
      <tilted>0</tilted></_>
    <_>
      <rects>
        <_>
          7 2 1 3 -1.</_>
        <_>
          7 3 1 1 3.</_></rects>
      <tilted>0</tilted></_>
    <_>
      <rects>
        <_>
          7 17 2 4 -1.</_>
        <_>
          7 17 1 2 2.</_>
        <_>
          8 19 1 2 2.</_></rects>
      <tilted>0</tilted></_>
    <_>
      <rects>
        <_>
          8 1 12 12 -1.</_>
        <_>
          12 1 4 12 3.</_></rects>
      <tilted>0</tilted></_>
    <_>
      <rects>
        <_>
          8 6 5 9 -1.</_>
        <_>
          8 9 5 3 3.</_></rects>
      <tilted>0</tilted></_>
    <_>
      <rects>
        <_>
          8 9 8 5 -1.</_>
        <_>
          12 9 4 5 2.</_></rects>
      <tilted>0</tilted></_>
    <_>
      <rects>
        <_>
          8 9 5 3 -1.</_>
        <_>
          8 10 5 1 3.</_></rects>
      <tilted>0</tilted></_>
    <_>
      <rects>
        <_>
          8 18 6 3 -1.</_>
        <_>
          10 18 2 3 3.</_></rects>
      <tilted>0</tilted></_>
    <_>
      <rects>
        <_>
          10 14 5 4 -1.</_>
        <_>
          10 16 5 2 2.</_></rects>
      <tilted>0</tilted></_>
    <_>
      <rects>
        <_>
          10 18 3 6 -1.</_>
        <_>
          10 21 3 3 2.</_></rects>
      <tilted>0</tilted></_>
    <_>
      <rects>
        <_>
          13 16 2 1 -1.</_>
        <_>
          14 16 1 1 2.</_></rects>
      <tilted>0</tilted></_>
    <_>
      <rects>
        <_>
          13 16 6 4 -1.</_>
        <_>
          13 16 3 2 2.</_>
        <_>
          16 18 3 2 2.</_></rects>
      <tilted>0</tilted></_>
    <_>
      <rects>
        <_>
          13 19 8 4 -1.</_>
        <_>
          13 19 4 2 2.</_>
        <_>
          17 21 4 2 2.</_></rects>
      <tilted>0</tilted></_>
    <_>
      <rects>
        <_>
          13 23 3 1 -1.</_>
        <_>
          14 23 1 1 3.</_></rects>
      <tilted>0</tilted></_>
    <_>
      <rects>
        <_>
          14 11 10 6 -1.</_>
        <_>
          19 11 5 6 2.</_></rects>
      <tilted>0</tilted></_>
    <_>
      <rects>
        <_>
          14 18 1 2 -1.</_>
        <_>
          14 19 1 1 2.</_></rects>
      <tilted>0</tilted></_>
    <_>
      <rects>
        <_>
          14 23 2 1 -1.</_>
        <_>
          15 23 1 1 2.</_></rects>
      <tilted>0</tilted></_>
    <_>
      <rects>
        <_>
          14 23 3 1 -1.</_>
        <_>
          15 23 1 1 3.</_></rects>
      <tilted>0</tilted></_>
    <_>
      <rects>
        <_>
          15 18 2 1 -1.</_>
        <_>
          16 18 1 1 2.</_></rects>
      <tilted>0</tilted></_>
    <_>
      <rects>
        <_>
          15 20 3 3 -1.</_>
        <_>
          16 20 1 3 3.</_></rects>
      <tilted>0</tilted></_>
    <_>
      <rects>
        <_>
          15 23 3 1 -1.</_>
        <_>
          16 23 1 1 3.</_></rects>
      <tilted>0</tilted></_>
    <_>
      <rects>
        <_>
          18 10 2 14 -1.</_>
        <_>
          18 10 1 7 2.</_>
        <_>
          19 17 1 7 2.</_></rects>
      <tilted>0</tilted></_>
    <_>
      <rects>
        <_>
          18 22 6 2 -1.</_>
        <_>
          20 22 2 2 3.</_></rects>
      <tilted>0</tilted></_>
    <_>
      <rects>
        <_>
          19 0 2 1 -1.</_>
        <_>
          20 0 1 1 2.</_></rects>
      <tilted>0</tilted></_>
    <_>
      <rects>
        <_>
          21 0 3 2 -1.</_>
        <_>
          21 1 3 1 2.</_></rects>
      <tilted>0</tilted></_>
    <_>
      <rects>
        <_>
          22 1 1 3 -1.</_>
        <_>
          22 2 1 1 3.</_></rects>
      <tilted>0</tilted></_>
    <_>
      <rects>
        <_>
          23 7 1 6 -1.</_>
        <_>
          23 10 1 3 2.</_></rects>
      <tilted>0</tilted></_></features></cascade>
</opencv_storage>
