<?xml version="1.0"?>
<opencv_storage>
<stage2>
  <maxWeakCount>6</maxWeakCount>
  <stageThreshold>-1.2692215442657471e+00</stageThreshold>
  <weakClassifiers>
    <_>
      <internalNodes>
        0 -1 124677 9.4485849142074585e-02</internalNodes>
      <leafValues>
        -8.6832058429718018e-01 1.9230769574642181e-01</leafValues></_>
    <_>
      <internalNodes>
        0 -1 239410 -1.6800351440906525e-03</internalNodes>
      <leafValues>
        8.7050102651119232e-02 -7.4691766500473022e-01</leafValues></_>
    <_>
      <internalNodes>
        0 -1 410598 -9.1231120750308037e-03</internalNodes>
      <leafValues>
        4.0322020649909973e-01 -4.9108096957206726e-01</leafValues></_>
    <_>
      <internalNodes>
        0 -1 31404 -1.4037762593943626e-04</internalNodes>
      <leafValues>
        -7.3958408832550049e-01 2.6139822602272034e-01</leafValues></_>
    <_>
      <internalNodes>
        0 -1 31402 2.6925385463982821e-04</internalNodes>
      <leafValues>
        2.4882848560810089e-01 -8.5816770792007446e-01</leafValues></_>
    <_>
      <internalNodes>
        0 -1 435985 1.2227736879140139e-03</internalNodes>
      <leafValues>
        -4.0041571855545044e-01 5.9528172016143799e-01</leafValues></_></weakClassifiers></stage2>
</opencv_storage>
