<?xml version="1.0"?>
<opencv_storage>
<stage3>
  <maxWeakCount>7</maxWeakCount>
  <stageThreshold>-1.1290012598037720e+00</stageThreshold>
  <weakClassifiers>
    <_>
      <internalNodes>
        0 -1 269148 4.6756256371736526e-02</internalNodes>
      <leafValues>
        -8.7831205129623413e-01 -6.1728395521640778e-02</leafValues></_>
    <_>
      <internalNodes>
        0 -1 390649 -2.3728117346763611e-02</internalNodes>
      <leafValues>
        1.9384810328483582e-01 -6.3844966888427734e-01</leafValues></_>
    <_>
      <internalNodes>
        0 -1 203658 2.2214935161173344e-03</internalNodes>
      <leafValues>
        -4.7913435101509094e-01 3.5678803920745850e-01</leafValues></_>
    <_>
      <internalNodes>
        0 -1 505490 -7.3058574344031513e-05</internalNodes>
      <leafValues>
        -8.6599379777908325e-01 2.0965528488159180e-01</leafValues></_>
    <_>
      <internalNodes>
        0 -1 86017 -1.2560926377773285e-02</internalNodes>
      <leafValues>
        4.0398374199867249e-01 -4.7027510404586792e-01</leafValues></_>
    <_>
      <internalNodes>
        0 -1 202987 -2.0031865686178207e-02</internalNodes>
      <leafValues>
        6.5884345769882202e-01 -2.7919760346412659e-01</leafValues></_>
    <_>
      <internalNodes>
        0 -1 494666 2.8373997658491135e-02</internalNodes>
      <leafValues>
        -2.4579377472400665e-01 7.1972143650054932e-01</leafValues></_></weakClassifiers></stage3>
</opencv_storage>
