<?xml version="1.0"?>
<opencv_storage>
<stage2>
  <maxWeakCount>7</maxWeakCount>
  <stageThreshold>-1.3038574457168579e+00</stageThreshold>
  <weakClassifiers>
    <_>
      <internalNodes>
        0 -1 200215 6.8409636616706848e-02</internalNodes>
      <leafValues>
        -8.3223372697830200e-01 2.9113924503326416e-01</leafValues></_>
    <_>
      <internalNodes>
        0 -1 303804 -1.1221542954444885e-02</internalNodes>
      <leafValues>
        3.6089661717414856e-01 -5.9235388040542603e-01</leafValues></_>
    <_>
      <internalNodes>
        0 -1 244938 -2.4668299010954797e-04</internalNodes>
      <leafValues>
        3.7482869625091553e-01 -4.7243630886077881e-01</leafValues></_>
    <_>
      <internalNodes>
        0 -1 188371 -1.5502711758017540e-03</internalNodes>
      <leafValues>
        6.6478002071380615e-01 -2.7161878347396851e-01</leafValues></_>
    <_>
      <internalNodes>
        0 -1 395013 1.0626778239384294e-03</internalNodes>
      <leafValues>
        -3.8563999533653259e-01 4.3996191024780273e-01</leafValues></_>
    <_>
      <internalNodes>
        0 -1 509690 -5.7503828429616988e-05</internalNodes>
      <leafValues>
        -8.1240546703338623e-01 2.1198289096355438e-01</leafValues></_>
    <_>
      <internalNodes>
        0 -1 501819 4.1821323975455016e-05</internalNodes>
      <leafValues>
        2.6231527328491211e-01 -5.6334531307220459e-01</leafValues></_></weakClassifiers></stage2>
</opencv_storage>
